<?xml version="1.0"?>
<opencv_storage>
<cascade>
  <stageType>BOOST</stageType>
  <featureType>HAAR</featureType>
  <height>20</height>
  <width>20</width>
  <stageParams>
    <boostType>GAB</boostType>
    <minHitRate>9.9500000476837158e-01</minHitRate>
    <maxFalseAlarm>5.0000000000000000e-01</maxFalseAlarm>
    <weightTrimRate>9.4999999999999996e-01</weightTrimRate>
    <maxDepth>1</maxDepth>
    <maxWeakCount>100</maxWeakCount></stageParams>
  <featureParams>
    <maxCatCount>0</maxCatCount>
    <featSize>1</featSize>
    <mode>BASIC</mode></featureParams>
  <stageNum>13</stageNum>
  <stages>
    <!-- stage 0 -->
    <_>
      <maxWeakCount>2</maxWeakCount>
      <stageThreshold>-2.4598863720893860e-01</stageThreshold>
      <weakClassifiers>
        <_>
          <internalNodes>
            0 -1 46 -1.2016611173748970e-02</internalNodes>
          <leafValues>
            8.1028568744659424e-01 -9.5076924562454224e-01</leafValues></_>
        <_>
          <internalNodes>
            0 -1 27 2.0976252853870392e-02</internalNodes>
          <leafValues>
            -9.0714669227600098e-01 7.0478057861328125e-01</leafValues></_></weakClassifiers></_>
    <!-- stage 1 -->
    <_>
      <maxWeakCount>3</maxWeakCount>
      <stageThreshold>5.5749386548995972e-02</stageThreshold>
      <weakClassifiers>
        <_>
          <internalNodes>
            0 -1 33 6.9703385233879089e-03</internalNodes>
          <leafValues>
            -8.8850176334381104e-01 7.1741509437561035e-01</leafValues></_>
        <_>
          <internalNodes>
            0 -1 39 7.0130834355950356e-03</internalNodes>
          <leafValues>
            -9.1787534952163696e-01 5.6610673666000366e-01</leafValues></_>
        <_>
          <internalNodes>
            0 -1 32 1.1349100619554520e-02</internalNodes>
          <leafValues>
            -9.9653148651123047e-01 3.7814441323280334e-01</leafValues></_></weakClassifiers></_>
    <!-- stage 2 -->
    <_>
      <maxWeakCount>4</maxWeakCount>
      <stageThreshold>-6.2622177600860596e-01</stageThreshold>
      <weakClassifiers>
        <_>
          <internalNodes>
            0 -1 2 3.7328161299228668e-02</internalNodes>
          <leafValues>
            -7.7257525920867920e-01 7.0033293962478638e-01</leafValues></_>
        <_>
          <internalNodes>
            0 -1 7 1.9151096930727363e-03</internalNodes>
          <leafValues>
            -8.5399687290191650e-01 5.5790448188781738e-01</leafValues></_>
        <_>
          <internalNodes>
            0 -1 45 -3.9255529642105103e-02</internalNodes>
          <leafValues>
            5.0238889455795288e-01 -8.0795454978942871e-01</leafValues></_>
        <_>
          <internalNodes>
            0 -1 26 -1.8533826805651188e-03</internalNodes>
          <leafValues>
            3.9640349149703979e-01 -8.2783585786819458e-01</leafValues></_></weakClassifiers></_>
    <!-- stage 3 -->
    <_>
      <maxWeakCount>4</maxWeakCount>
      <stageThreshold>-3.0095276236534119e-01</stageThreshold>
      <weakClassifiers>
        <_>
          <internalNodes>
            0 -1 49 -1.0827839374542236e-02</internalNodes>
          <leafValues>
            6.3295096158981323e-01 -8.5892117023468018e-01</leafValues></_>
        <_>
          <internalNodes>
            0 -1 20 -1.3192942366003990e-02</internalNodes>
          <leafValues>
            6.3502132892608643e-01 -6.2853199243545532e-01</leafValues></_>
        <_>
          <internalNodes>
            0 -1 17 5.8261588215827942e-02</internalNodes>
          <leafValues>
            -4.8131397366523743e-01 7.9842883348464966e-01</leafValues></_>
        <_>
          <internalNodes>
            0 -1 18 -1.5235823579132557e-02</internalNodes>
          <leafValues>
            -8.7548178434371948e-01 4.1941571235656738e-01</leafValues></_></weakClassifiers></_>
    <!-- stage 4 -->
    <_>
      <maxWeakCount>4</maxWeakCount>
      <stageThreshold>-7.6386791467666626e-01</stageThreshold>
      <weakClassifiers>
        <_>
          <internalNodes>
            0 -1 13 6.5680937841534615e-03</internalNodes>
          <leafValues>
            5.8093345165252686e-01 -9.5854920148849487e-01</leafValues></_>
        <_>
          <internalNodes>
            0 -1 9 1.0167501866817474e-02</internalNodes>
          <leafValues>
            -9.0704244375228882e-01 3.8428962230682373e-01</leafValues></_>
        <_>
          <internalNodes>
            0 -1 0 1.0195398330688477e-01</internalNodes>
          <leafValues>
            -5.9483665227890015e-01 6.0678988695144653e-01</leafValues></_>
        <_>
          <internalNodes>
            0 -1 35 -4.2239828035235405e-03</internalNodes>
          <leafValues>
            3.8309139013290405e-01 -7.9639822244644165e-01</leafValues></_></weakClassifiers></_>
    <!-- stage 5 -->
    <_>
      <maxWeakCount>3</maxWeakCount>
      <stageThreshold>1.5691579878330231e-01</stageThreshold>
      <weakClassifiers>
        <_>
          <internalNodes>
            0 -1 10 7.5605753809213638e-03</internalNodes>
          <leafValues>
            -1. 5.8415842056274414e-01</leafValues></_>
        <_>
          <internalNodes>
            0 -1 14 2.8014775365591049e-02</internalNodes>
          <leafValues>
            4.5115643739700317e-01 -9.4963067770004272e-01</leafValues></_>
        <_>
          <internalNodes>
            0 -1 52 -8.9430483058094978e-03</internalNodes>
          <leafValues>
            5.2238810062408447e-01 -6.5398603677749634e-01</leafValues></_></weakClassifiers></_>
    <!-- stage 6 -->
    <_>
      <maxWeakCount>4</maxWeakCount>
      <stageThreshold>-5.0473213195800781e-01</stageThreshold>
      <weakClassifiers>
        <_>
          <internalNodes>
            0 -1 28 -6.9914152845740318e-05</internalNodes>
          <leafValues>
            5.9679037332534790e-01 -9.6059113740921021e-01</leafValues></_>
        <_>
          <internalNodes>
            0 -1 31 -2.8081260621547699e-02</internalNodes>
          <leafValues>
            -9.7577852010726929e-01 3.4603500366210938e-01</leafValues></_>
        <_>
          <internalNodes>
            0 -1 1 3.1311690807342529e-02</internalNodes>
          <leafValues>
            -5.0894010066986084e-01 6.9873601198196411e-01</leafValues></_>
        <_>
          <internalNodes>
            0 -1 22 1.0303931310772896e-02</internalNodes>
          <leafValues>
            -8.5274481773376465e-01 3.8319611549377441e-01</leafValues></_></weakClassifiers></_>
    <!-- stage 7 -->
    <_>
      <maxWeakCount>4</maxWeakCount>
      <stageThreshold>-6.4960706233978271e-01</stageThreshold>
      <weakClassifiers>
        <_>
          <internalNodes>
            0 -1 30 -2.3179663345217705e-02</internalNodes>
          <leafValues>
            -9.6019899845123291e-01 5.9359359741210938e-01</leafValues></_>
        <_>
          <internalNodes>
            0 -1 40 1.4382448280230165e-03</internalNodes>
          <leafValues>
            3.4481799602508545e-01 -9.6161395311355591e-01</leafValues></_>
        <_>
          <internalNodes>
            0 -1 15 7.0214523002505302e-03</internalNodes>
          <leafValues>
            2.7677682042121887e-01 -9.3465071916580200e-01</leafValues></_>
        <_>
          <internalNodes>
            0 -1 5 8.3208598196506500e-02</internalNodes>
          <leafValues>
            -5.5836349725723267e-01 6.1299473047256470e-01</leafValues></_></weakClassifiers></_>
    <!-- stage 8 -->
    <_>
      <maxWeakCount>5</maxWeakCount>
      <stageThreshold>-5.9133982658386230e-01</stageThreshold>
      <weakClassifiers>
        <_>
          <internalNodes>
            0 -1 34 -2.7975320816040039e-02</internalNodes>
          <leafValues>
            5.7842159271240234e-01 -8.9949750900268555e-01</leafValues></_>
        <_>
          <internalNodes>
            0 -1 8 1.6490934416651726e-02</internalNodes>
          <leafValues>
            3.5687759518623352e-01 -9.4425350427627563e-01</leafValues></_>
        <_>
          <internalNodes>
            0 -1 37 1.3658275129273534e-03</internalNodes>
          <leafValues>
            -7.4031335115432739e-01 3.4101957082748413e-01</leafValues></_>
        <_>
          <internalNodes>
            0 -1 6 -1.4512635767459869e-02</internalNodes>
          <leafValues>
            -8.5060065984725952e-01 3.2525649666786194e-01</leafValues></_>
        <_>
          <internalNodes>
            0 -1 24 -4.4464403763413429e-03</internalNodes>
          <leafValues>
            1.8954896926879883e-01 -9.9054133892059326e-01</leafValues></_></weakClassifiers></_>
    <!-- stage 9 -->
    <_>
      <maxWeakCount>5</maxWeakCount>
      <stageThreshold>-4.8719188570976257e-01</stageThreshold>
      <weakClassifiers>
        <_>
          <internalNodes>
            0 -1 19 -2.0301274955272675e-02</internalNodes>
          <leafValues>
            -8.6915886402130127e-01 5.9432047605514526e-01</leafValues></_>
        <_>
          <internalNodes>
            0 -1 48 -6.8556470796465874e-04</internalNodes>
          <leafValues>
            -8.8842463493347168e-01 3.0809313058853149e-01</leafValues></_>
        <_>
          <internalNodes>
            0 -1 4 -9.0459682047367096e-02</internalNodes>
          <leafValues>
            6.1904013156890869e-01 -4.5593348145484924e-01</leafValues></_>
        <_>
          <internalNodes>
            0 -1 11 8.8975398102775216e-04</internalNodes>
          <leafValues>
            -7.2396725416183472e-01 3.4145614504814148e-01</leafValues></_>
        <_>
          <internalNodes>
            0 -1 38 3.9306876715272665e-04</internalNodes>
          <leafValues>
            -8.8662242889404297e-01 2.7630567550659180e-01</leafValues></_></weakClassifiers></_>
    <!-- stage 10 -->
    <_>
      <maxWeakCount>5</maxWeakCount>
      <stageThreshold>-6.0296261310577393e-01</stageThreshold>
      <weakClassifiers>
        <_>
          <internalNodes>
            0 -1 12 -1.5135069843381643e-03</internalNodes>
          <leafValues>
            -8.7951809167861938e-01 5.2804642915725708e-01</leafValues></_>
        <_>
          <internalNodes>
            0 -1 44 1.0390457697212696e-02</internalNodes>
          <leafValues>
            2.8137871623039246e-01 -8.9377307891845703e-01</leafValues></_>
        <_>
          <internalNodes>
            0 -1 43 -1.8848571926355362e-02</internalNodes>
          <leafValues>
            -9.3876361846923828e-01 2.1031919121742249e-01</leafValues></_>
        <_>
          <internalNodes>
            0 -1 36 -2.6882132515311241e-03</internalNodes>
          <leafValues>
            3.0365619063377380e-01 -7.1547561883926392e-01</leafValues></_>
        <_>
          <internalNodes>
            0 -1 50 7.4073791503906250e-02</internalNodes>
          <leafValues>
            -5.1879864931106567e-01 4.7315162420272827e-01</leafValues></_></weakClassifiers></_>
    <!-- stage 11 -->
    <_>
      <maxWeakCount>5</maxWeakCount>
      <stageThreshold>-2.7975639700889587e-01</stageThreshold>
      <weakClassifiers>
        <_>
          <internalNodes>
            0 -1 25 4.8309592530131340e-03</internalNodes>
          <leafValues>
            5.5490195751190186e-01 -9.2222219705581665e-01</leafValues></_>
        <_>
          <internalNodes>
            0 -1 3 1.3632927089929581e-02</internalNodes>
          <leafValues>
            -5.5478024482727051e-01 5.3207093477249146e-01</leafValues></_>
        <_>
          <internalNodes>
            0 -1 23 6.6482619149610400e-04</internalNodes>
          <leafValues>
            -8.2960611581802368e-01 3.6031830310821533e-01</leafValues></_>
        <_>
          <internalNodes>
            0 -1 21 2.3905901238322258e-02</internalNodes>
          <leafValues>
            -4.3944066762924194e-01 5.7074970006942749e-01</leafValues></_>
        <_>
          <internalNodes>
            0 -1 47 2.5637989165261388e-04</internalNodes>
          <leafValues>
            2.6617801189422607e-01 -9.3142968416213989e-01</leafValues></_></weakClassifiers></_>
    <!-- stage 12 -->
    <_>
      <maxWeakCount>5</maxWeakCount>
      <stageThreshold>-2.9874920845031738e-01</stageThreshold>
      <weakClassifiers>
        <_>
          <internalNodes>
            0 -1 41 3.6741077201440930e-04</internalNodes>
          <leafValues>
            5.8368200063705444e-01 -6.4754098653793335e-01</leafValues></_>
        <_>
          <internalNodes>
            0 -1 29 -9.3077570199966431e-03</internalNodes>
          <leafValues>
            2.8673136234283447e-01 -9.2506933212280273e-01</leafValues></_>
        <_>
          <internalNodes>
            0 -1 51 1.6846740618348122e-04</internalNodes>
          <leafValues>
            2.2557355463504791e-01 -9.2456150054931641e-01</leafValues></_>
        <_>
          <internalNodes>
            0 -1 16 -3.2067276537418365e-02</internalNodes>
          <leafValues>
            6.2935632467269897e-01 -4.1298297047615051e-01</leafValues></_>
        <_>
          <internalNodes>
            0 -1 42 -1.9144008401781321e-03</internalNodes>
          <leafValues>
            2.4946984648704529e-01 -9.1654014587402344e-01</leafValues></_></weakClassifiers></_></stages>
  <features>
    <_>
      <rects>
        <_>
          0 5 8 13 -1.</_>
        <_>
          4 5 4 13 2.</_></rects>
      <tilted>0</tilted></_>
    <_>
      <rects>
        <_>
          0 7 4 8 -1.</_>
        <_>
          2 7 2 8 2.</_></rects>
      <tilted>0</tilted></_>
    <_>
      <rects>
        <_>
          1 4 15 5 -1.</_>
        <_>
          6 4 5 5 3.</_></rects>
      <tilted>0</tilted></_>
    <_>
      <rects>
        <_>
          1 5 4 4 -1.</_>
        <_>
          3 5 2 4 2.</_></rects>
      <tilted>0</tilted></_>
    <_>
      <rects>
        <_>
          1 14 14 6 -1.</_>
        <_>
          1 17 14 3 2.</_></rects>
      <tilted>0</tilted></_>
    <_>
      <rects>
        <_>
          2 1 16 6 -1.</_>
        <_>
          2 4 16 3 2.</_></rects>
      <tilted>0</tilted></_>
    <_>
      <rects>
        <_>
          2 7 12 8 -1.</_>
        <_>
          6 7 4 8 3.</_></rects>
      <tilted>0</tilted></_>
    <_>
      <rects>
        <_>
          2 9 6 2 -1.</_>
        <_>
          4 9 2 2 3.</_></rects>
      <tilted>0</tilted></_>
    <_>
      <rects>
        <_>
          2 9 15 2 -1.</_>
        <_>
          7 9 5 2 3.</_></rects>
      <tilted>0</tilted></_>
    <_>
      <rects>
        <_>
          3 6 12 2 -1.</_>
        <_>
          7 6 4 2 3.</_></rects>
      <tilted>0</tilted></_>
    <_>
      <rects>
        <_>
          3 7 12 7 -1.</_>
        <_>
          9 7 6 7 2.</_></rects>
      <tilted>0</tilted></_>
    <_>
      <rects>
        <_>
          4 5 5 2 -1.</_>
        <_>
          4 6 5 1 2.</_></rects>
      <tilted>0</tilted></_>
    <_>
      <rects>
        <_>
          4 6 4 2 -1.</_>
        <_>
          4 7 4 1 2.</_></rects>
      <tilted>0</tilted></_>
    <_>
      <rects>
        <_>
          4 7 9 7 -1.</_>
        <_>
          7 7 3 7 3.</_></rects>
      <tilted>0</tilted></_>
    <_>
      <rects>
        <_>
          4 7 12 9 -1.</_>
        <_>
          10 7 6 9 2.</_></rects>
      <tilted>0</tilted></_>
    <_>
      <rects>
        <_>
          4 8 6 5 -1.</_>
        <_>
          7 8 3 5 2.</_></rects>
      <tilted>0</tilted></_>
    <_>
      <rects>
        <_>
          4 16 7 4 -1.</_>
        <_>
          4 18 7 2 2.</_></rects>
      <tilted>0</tilted></_>
    <_>
      <rects>
        <_>
          5 0 9 6 -1.</_>
        <_>
          5 3 9 3 2.</_></rects>
      <tilted>0</tilted></_>
    <_>
      <rects>
        <_>
          5 7 6 9 -1.</_>
        <_>
          7 7 2 9 3.</_></rects>
      <tilted>0</tilted></_>
    <_>
      <rects>
        <_>
          5 7 12 6 -1.</_>
        <_>
          11 7 6 6 2.</_></rects>
      <tilted>0</tilted></_>
    <_>
      <rects>
        <_>
          5 15 5 4 -1.</_>
        <_>
          5 17 5 2 2.</_></rects>
      <tilted>0</tilted></_>
    <_>
      <rects>
        <_>
          6 0 5 4 -1.</_>
        <_>
          6 2 5 2 2.</_></rects>
      <tilted>0</tilted></_>
    <_>
      <rects>
        <_>
          6 4 5 6 -1.</_>
        <_>
          6 6 5 2 3.</_></rects>
      <tilted>0</tilted></_>
    <_>
      <rects>
        <_>
          6 5 4 8 -1.</_>
        <_>
          8 5 2 8 2.</_></rects>
      <tilted>0</tilted></_>
    <_>
      <rects>
        <_>
          6 5 9 12 -1.</_>
        <_>
          6 11 9 6 2.</_></rects>
      <tilted>0</tilted></_>
    <_>
      <rects>
        <_>
          6 8 6 8 -1.</_>
        <_>
          8 8 2 8 3.</_></rects>
      <tilted>0</tilted></_>
    <_>
      <rects>
        <_>
          6 9 6 2 -1.</_>
        <_>
          8 9 2 2 3.</_></rects>
      <tilted>0</tilted></_>
    <_>
      <rects>
        <_>
          7 2 4 9 -1.</_>
        <_>
          7 5 4 3 3.</_></rects>
      <tilted>0</tilted></_>
    <_>
      <rects>
        <_>
          7 4 2 12 -1.</_>
        <_>
          7 10 2 6 2.</_></rects>
      <tilted>0</tilted></_>
    <_>
      <rects>
        <_>
          7 5 10 5 -1.</_>
        <_>
          12 5 5 5 2.</_></rects>
      <tilted>0</tilted></_>
    <_>
      <rects>
        <_>
          7 5 7 10 -1.</_>
        <_>
          7 10 7 5 2.</_></rects>
      <tilted>0</tilted></_>
    <_>
      <rects>
        <_>
          7 6 6 10 -1.</_>
        <_>
          7 11 6 5 2.</_></rects>
      <tilted>0</tilted></_>
    <_>
      <rects>
        <_>
          7 8 9 7 -1.</_>
        <_>
          10 8 3 7 3.</_></rects>
      <tilted>0</tilted></_>
    <_>
      <rects>
        <_>
          8 3 6 4 -1.</_>
        <_>
          8 5 6 2 2.</_></rects>
      <tilted>0</tilted></_>
    <_>
      <rects>
        <_>
          8 5 10 9 -1.</_>
        <_>
          13 5 5 9 2.</_></rects>
      <tilted>0</tilted></_>
    <_>
      <rects>
        <_>
          8 7 2 6 -1.</_>
        <_>
          8 9 2 2 3.</_></rects>
      <tilted>0</tilted></_>
    <_>
      <rects>
        <_>
          8 9 4 6 -1.</_>
        <_>
          8 9 2 3 2.</_>
        <_>
          10 12 2 3 2.</_></rects>
      <tilted>0</tilted></_>
    <_>
      <rects>
        <_>
          9 5 2 3 -1.</_>
        <_>
          9 6 2 1 3.</_></rects>
      <tilted>0</tilted></_>
    <_>
      <rects>
        <_>
          9 8 3 6 -1.</_>
        <_>
          9 11 3 3 2.</_></rects>
      <tilted>0</tilted></_>
    <_>
      <rects>
        <_>
          9 9 2 9 -1.</_>
        <_>
          9 12 2 3 3.</_></rects>
      <tilted>0</tilted></_>
    <_>
      <rects>
        <_>
          9 12 4 5 -1.</_>
        <_>
          11 12 2 5 2.</_></rects>
      <tilted>0</tilted></_>
    <_>
      <rects>
        <_>
          9 15 6 1 -1.</_>
        <_>
          11 15 2 1 3.</_></rects>
      <tilted>0</tilted></_>
    <_>
      <rects>
        <_>
          10 13 7 2 -1.</_>
        <_>
          10 14 7 1 2.</_></rects>
      <tilted>0</tilted></_>
    <_>
      <rects>
        <_>
          11 7 6 10 -1.</_>
        <_>
          13 7 2 10 3.</_></rects>
      <tilted>0</tilted></_>
    <_>
      <rects>
        <_>
          11 8 6 7 -1.</_>
        <_>
          13 8 2 7 3.</_></rects>
      <tilted>0</tilted></_>
    <_>
      <rects>
        <_>
          11 10 5 8 -1.</_>
        <_>
          11 14 5 4 2.</_></rects>
      <tilted>0</tilted></_>
    <_>
      <rects>
        <_>
          11 11 3 6 -1.</_>
        <_>
          11 14 3 3 2.</_></rects>
      <tilted>0</tilted></_>
    <_>
      <rects>
        <_>
          11 15 2 2 -1.</_>
        <_>
          11 16 2 1 2.</_></rects>
      <tilted>0</tilted></_>
    <_>
      <rects>
        <_>
          11 16 3 1 -1.</_>
        <_>
          12 16 1 1 3.</_></rects>
      <tilted>0</tilted></_>
    <_>
      <rects>
        <_>
          12 11 3 6 -1.</_>
        <_>
          12 14 3 3 2.</_></rects>
      <tilted>0</tilted></_>
    <_>
      <rects>
        <_>
          15 1 3 18 -1.</_>
        <_>
          15 7 3 6 3.</_></rects>
      <tilted>0</tilted></_>
    <_>
      <rects>
        <_>
          15 13 2 1 -1.</_>
        <_>
          16 13 1 1 2.</_></rects>
      <tilted>0</tilted></_>
    <_>
      <rects>
        <_>
          16 9 4 4 -1.</_>
        <_>
          18 9 2 4 2.</_></rects>
      <tilted>0</tilted></_></features></cascade>
</opencv_storage>
